21 20
10 -0.1926776 0.12171097 0.031133726 -0.11351119 0.26392117 -0.059730124 0.27461648 0.104912445 -0.15877715 0.12722728 0.19065633 -0.15930113 -0.030235596 -0.2161957 0.05549113 0.06924001 0.43357635 0.09697426 -0.23796211 0.064699315
14 -0.19740383 0.11345663 0.047580305 -0.049157653 0.2924433 -0.11074323 0.15986905 0.13336301 -0.1800917 0.04952041 0.12911528 -0.19441985 0.0820056 -0.36475027 0.06595634 0.056135375 0.42366117 0.018106688 -0.17340346 -0.060957544
6 -0.25225502 0.018203845 -0.06567161 -0.06407552 0.15570946 0.05252668 0.24551135 0.07998866 -0.11118036 0.19427064 0.10109665 -0.2813373 0.042216513 -0.17942671 0.14463739 0.15297386 0.46543625 -0.018532226 -0.24237235 0.11474379
5 -0.29509547 0.0006591058 -0.09060849 -0.12208699 0.03904603 0.06375742 0.30854946 0.12482538 -0.14700466 0.2247851 0.16737866 -0.24909125 0.13811892 -0.19512738 0.13655011 0.19493835 0.3818611 -0.08821362 -0.23473485 0.041447837
16 -0.23941663 0.08044708 0.0230086 -0.095595494 0.1743087 0.09743887 0.22835459 0.08137194 -0.1347154 0.05569224 0.15140843 -0.24846536 0.17964233 -0.19530083 0.02823254 0.033103604 0.42266187 -0.06363226 -0.2742747 -0.036777325
15 -0.11403992 0.09218217 0.10249616 -0.07801658 0.17851935 0.13742267 0.07462788 0.1256411 -0.30790675 0.03206372 0.005650446 -0.29243886 0.26146385 -0.30081052 0.07310089 0.13371961 0.39790648 -0.17536819 -0.27002937 0.08484655
7 -0.2911624 0.055612106 0.009198724 -0.19072098 0.16122063 0.107062444 0.24321288 0.06631944 -0.12238598 0.09020636 0.15896167 -0.16164115 0.091983326 -0.23901705 0.088097416 0.025285687 0.45006883 -0.010581936 -0.233254 -0.0026404273
11 -0.21824464 0.017349876 -0.008935549 -0.12430942 0.09438739 0.024009649 0.18900052 0.007552128 -0.15184374 0.08029224 0.15264052 -0.12858483 0.15375106 -0.3016338 0.030308036 0.15005077 0.53349173 -0.018377665 -0.20118228 -0.09049344
8 -0.22995888 0.028760936 -0.07807693 -0.0029369749 0.14939766 0.11313145 0.2657337 0.10719501 -0.14184804 0.07469074 0.13345 -0.33708757 0.0682271 -0.22319974 -0.03384547 0.09137459 0.42959672 0.035920233 -0.21324082 -0.14104167
20 -0.31080395 0.07939388 -0.05216589 -0.07982354 0.19213991 0.0062822714 0.17750643 0.00076917955 -0.10040738 0.07664613 0.06181553 -0.20598517 0.16062005 -0.2214522 0.03915639 0.042672195 0.5126089 -0.05856484 -0.2543146 -0.07606452
17 -0.23278894 0.15190962 0.1078631 -0.09257975 0.2767282 0.10186763 0.17541453 0.16283181 -0.25687864 0.14023735 0.052456595 -0.2687992 0.12399468 -0.31396127 -0.11492885 -0.03527078 0.33213025 -0.05494115 -0.2367701 -0.01901143
13 -0.24582894 0.15729597 0.10318694 -0.052791838 0.2610186 0.01335766 0.23022737 0.19987483 -0.16133535 0.07440431 0.08271619 -0.23162104 0.030786797 -0.25819027 0.015242852 -0.0059774127 0.36692816 0.018960392 -0.23417024 0.014390516
18 -0.32031018 0.11640264 -0.062754124 -0.15112996 0.26965934 0.12916523 0.17813987 0.09071524 -0.16140935 -0.0027739774 0.07359251 -0.23801082 0.1244523 -0.19725567 0.10427918 -0.009294586 0.38828823 -0.037179317 -0.288615 0.050594874
12 -0.2722455 0.110638395 0.020503424 -0.08409457 0.19562903 0.020758204 0.19208398 0.08512054 -0.16266544 0.087071635 0.10005478 -0.15040864 0.0843868 -0.22095633 0.018462999 0.032089382 0.4672514 -0.0060900063 -0.28789985 -0.006695162
19 -0.26507497 0.032265123 -0.00046837024 -0.12158065 0.23573992 0.08899656 0.15017119 0.08425526 -0.13395213 0.06508592 0.14682548 -0.25561595 0.14373267 -0.2750242 0.037840005 0.122009285 0.42973477 -0.042568594 -0.20574792 0.082466096
9 -0.3874535 0.08158824 0.06833284 -0.102044486 0.27259392 -0.072885066 0.20987682 0.17695813 -0.099420324 0.0039316425 0.18960978 -0.20714632 0.16178559 -0.29385537 0.14157888 0.03964422 0.33031532 -0.105717175 -0.16708662 0.0050491034
1 -0.030367663 0.1972891 0.6075387 0.28160897 -0.36774275 -0.17266116 0.4239834 0.46101502 -0.12890998 -0.16548203 0.037322786 -0.06451282 -0.3215894 -0.19520944 0.2307293 0.32761937 0.5255089 -0.267811 -0.4797532 0.14953196
2 0.31974024 0.2801445 0.38924134 0.012693896 0.10615221 0.08897577 0.30563617 0.34870502 -0.42974126 -0.21286786 0.28669703 -0.14843461 -0.31139 -0.27112436 -0.076135784 0.10057128 0.44290817 0.3410412 -0.33697227 -0.09327023
4 0.098812 0.12565169 0.17423113 0.04363412 0.11389585 -0.07315818 0.1779381 0.30395356 -0.24783069 -0.4568767 0.580298 -0.1081035 0.27210072 -0.020669831 0.18151528 0.3129647 0.41254205 0.14368561 -0.43427527 0.033082757
3 -0.23144871 0.37910178 0.068845555 0.042215962 0.07778825 0.13874182 0.5336553 0.3104595 -0.20923842 -0.46254408 0.003976137 -0.20017289 -0.0059312177 0.11017576 0.28742066 -0.21088685 0.3621624 0.11714165 -0.4128996 -0.5097148
0 0.08146212 0.31077832 0.45749032 -0.07962041 0.05268266 0.059981205 0.6381491 0.3919919 -0.45196903 0.015036777 -0.061140507 -0.14789805 -0.6291438 -0.38685337 0.21460095 -0.038398873 0.39046732 0.29926923 0.053980276 -0.34638864
